-1.40459050985487
1.0570744435333
-1.40050650847979
-0.219059476495423
-1.21661705854624
0.394106801935479
-0.616280170394279
-1.34657952556972
0.916778962125967
-1.24872936096595
-0.795983361494463
-0.969004965587721
0.56090794373006
-0.699133396111219
2.21871440254041
-1.63728149099091
2.16689410095257
1.28781108600278
1.82862333003197
-0.796864175525785
1.07886331424574
2.01969143132401
-1.52553553959755
1.98021065562493
0.608572628135482
1.71072654597267
-0.725290227091327
1.01659104259679
-1.35398191094454
1.01421429830008
-1.33794610585891
-0.156935439176344
-1.14365089340538
0.480199459518478
-0.670468126193272
1.35182107520779
-0.487018984572618
-0.816174342171729
-1.01904610759162
0.360331928167866
0.491909413996668
1.2485779691706
-0.540608023944481
-0.671184839050835
0.549270207943178
2.07610943586559
-1.85791336605198
1.02618815260731
-0.489528597631135
-0.457139258091251
-0.962086053393626
-0.162270482646645
0.657676078704825
1.00584291332628
-0.00930466960350759
-0.592560307154201
-0.54069815590347
1.61816991668226
0.21398431006419
